genomestart R-1, G1
node -1 1 1 1
node -1 2 1 3
node -1 3 0 2
node -1 4 0 0
node -1 5 0 0
node -1 6 0 0
node -1 7 0 0
node -1 8 0 0
node -1 9 0 0
node -1 10 0 0
node -1 11 0 0
gene -1 1 -1 3 0.151196 0 -1 1 1
gene -1 2 -1 3 0 0 -1 2 0
gene -1 2 -1 4 0.20311 0 -1 3 0
gene -1 4 -1 3 0 0 -1 4 0
gene -1 4 -1 5 1.46587 0 -1 5 1
gene -1 5 -1 3 0 0 -1 6 0
gene -1 2 -1 6 0.20311 0 -1 7 0
gene -1 6 -1 4 1.19647 0 -1 8 1
gene -1 2 -1 7 0.20311 0 -1 9 0
gene -1 7 -1 6 0.984411 0 -1 10 1
gene -1 2 -1 8 -1.0468 0 -1 11 1
gene -1 8 -1 7 1.01555 0 -1 12 0
gene -1 5 -1 9 -0.64793 0 -1 13 1
gene -1 9 -1 3 -0.374302 0 -1 14 1
gene -1 8 -1 10 0.20311 0 -1 15 0
gene -1 10 -1 7 4.45067 0 -1 16 1
gene -1 8 -1 11 -0.303431 0 -1 17 1
gene -1 11 -1 10 1.81368 0 -1 18 1
gene -1 8 -1 4 0.397942 0 -1 19 1
gene -1 8 -1 7 0.842252 0 -1 20 1
gene -1 10 -1 3 -0.669554 0 -1 21 1
gene -1 4 -1 3 -0.314267 0 -1 22 1
gene -1 1 -1 8 0.514733 0 -1 23 1
gene -1 10 -1 5 0.776292 0 -1 24 1
gene -1 1 -1 5 1.65369 0 -1 25 1
gene -1 11 -1 7 -1.47199 0 -1 26 1
gene -1 8 -1 6 0.163244 0 -1 27 1
gene -1 11 -1 6 0.0827896 0 -1 28 1
gene -1 2 -1 5 -0.0653415 0 -1 29 1
gene -1 5 -1 3 -0.860251 0 -1 30 1
gene -1 1 -1 6 -0.599087 0 -1 31 1
gene -1 1 -1 11 0.0155031 0 -1 32 1
gene -1 1 -1 9 -0.26679 0 -1 33 1
gene -1 2 -1 11 0.777802 0 -1 34 1
genomeend R-1, G1
