genomestart R-1, G1
node -1 1 1 1
node -1 2 1 3
node -1 3 0 2
node -1 4 0 0
node -1 5 0 0
node -1 6 0 0
node -1 7 0 0
node -1 8 0 0
node -1 9 0 0
node -1 10 0 0
node -1 11 0 0
gene -1 1 -1 3 0 0 -1 1 0
gene -1 2 -1 3 0 0 -1 2 0
gene -1 2 -1 4 0.980795 0 -1 3 1
gene -1 4 -1 3 0 0 -1 4 0
gene -1 1 -1 5 -0.181548 0 -1 5 1
gene -1 5 -1 3 -0.734404 0 -1 6 1
gene -1 4 -1 6 -0.386152 0 -1 7 1
gene -1 6 -1 3 0 0 -1 8 0
gene -1 6 -1 7 0.20311 0 -1 9 0
gene -1 7 -1 3 0 0 -1 10 0
gene -1 7 -1 8 -0.963172 0 -1 11 1
gene -1 8 -1 3 0 0 -1 12 0
gene -1 6 -1 9 0.20311 0 -1 13 0
gene -1 9 -1 7 0.842701 0 -1 14 1
gene -1 8 -1 10 -1.46849 0 -1 15 1
gene -1 10 -1 3 0.593485 0 -1 16 1
gene -1 6 -1 11 0.317434 0 -1 17 1
gene -1 11 -1 9 2.23536 0 -1 18 1
gene -1 4 -1 9 -1.30073 0 -1 19 1
gene -1 10 -1 5 0.706323 0 -1 20 1
gene -1 4 -1 8 0.432428 0 -1 21 1
gene -1 2 -1 6 0.280929 0 -1 22 1
gene -1 6 -1 9 1.68155 0 -1 23 1
gene -1 1 -1 3 0.597666 0 -1 24 1
gene -1 6 -1 5 1.13525 0 -1 25 1
gene -1 1 -1 7 -2.39366 0 -1 26 1
gene -1 11 -1 5 0.690342 0 -1 27 1
gene -1 6 -1 8 -0.482272 0 -1 28 1
gene -1 1 -1 10 -1.26734 0 -1 29 1
gene -1 4 -1 5 0.545399 0 -1 30 1
gene -1 11 -1 7 -0.985894 0 -1 31 1
gene -1 7 -1 3 0.155127 0 -1 32 1
gene -1 9 -1 8 0.0207536 0 -1 33 1
gene -1 4 -1 11 0.283758 0 -1 34 1
genomeend R-1, G1
